{
  "fold_summaries": [
    {
      "fold": 0,
      "metrics": {
        "mae": 0.24473387002944946,
        "rmse": 0.34423157572746277,
        "r2": 0.8837982212272731,
        "spearman_rho": 0.906870737565053,
        "spearman_pvalue": 0.0,
        "nlpd": 0.192803293466568,
        "crps": 0.1758337578934182,
        "val_nll": -0.42183975391602785,
        "val_elbo": -0.41297105543306084,
        "null_mae": 0.6698095798492432,
        "posterior_collapse_score": 0.17030111118931726,
        "best_epoch": 46
      }
    },
    {
      "fold": 1,
      "metrics": {
        "mae": 0.3704545199871063,
        "rmse": 0.5201807022094727,
        "r2": 0.7324374894203336,
        "spearman_rho": 0.8834853591890817,
        "spearman_pvalue": 0.0,
        "nlpd": 0.4795193076133728,
        "crps": 0.26145565177090574,
        "val_nll": 0.10367613065526243,
        "val_elbo": 0.11252995134145954,
        "null_mae": 0.7007213234901428,
        "posterior_collapse_score": 0.14383900606302483,
        "best_epoch": 35
      }
    },
    {
      "fold": 2,
      "metrics": {
        "mae": 0.467037558555603,
        "rmse": 0.6547591686248779,
        "r2": 0.38065862497518677,
        "spearman_rho": 0.7830727239798722,
        "spearman_pvalue": 0.0,
        "nlpd": 2.2206003665924072,
        "crps": 0.38281481607025963,
        "val_nll": 0.7293292768073805,
        "val_elbo": 0.7380593116837318,
        "null_mae": 0.9148367643356323,
        "posterior_collapse_score": 0.12922053661044305,
        "best_epoch": 26
      }
    },
    {
      "fold": 3,
      "metrics": {
        "mae": 0.5350844264030457,
        "rmse": 0.8224693536758423,
        "r2": 0.07334160228717879,
        "spearman_rho": 0.39237338945355255,
        "spearman_pvalue": 5.81286207600781e-60,
        "nlpd": 0.9470508694648743,
        "crps": 0.4079083901460276,
        "val_nll": 1.798545942437813,
        "val_elbo": 1.8073331715914425,
        "null_mae": 0.5585027933120728,
        "posterior_collapse_score": 0.10209627644009628,
        "best_epoch": 2
      }
    },
    {
      "fold": 4,
      "metrics": {
        "mae": 0.20306648313999176,
        "rmse": 0.3404945731163025,
        "r2": 0.8774350899093658,
        "spearman_rho": 0.8979026864396429,
        "spearman_pvalue": 0.0,
        "nlpd": 0.22468771040439606,
        "crps": 0.16821190585875342,
        "val_nll": -0.3579653915386176,
        "val_elbo": -0.34917464274190396,
        "null_mae": 0.6442630290985107,
        "posterior_collapse_score": 0.16063583768090772,
        "best_epoch": 42
      }
    },
    {
      "fold": 5,
      "metrics": {
        "mae": 0.15442243218421936,
        "rmse": 0.373846173286438,
        "r2": -0.009286925300860283,
        "spearman_rho": 0.2877704395639667,
        "spearman_pvalue": 7.589095533666648e-32,
        "nlpd": -0.08020380139350891,
        "crps": 0.13503908667384298,
        "val_nll": -0.20860608689328458,
        "val_elbo": -0.1997206610344229,
        "null_mae": 0.5967258810997009,
        "posterior_collapse_score": 0.13958185814284543,
        "best_epoch": 32
      }
    }
  ],
  "histories": [
    {
      "train_loss": [
        0.5327097128421826,
        0.4252106296815541,
        0.33739534294652207,
        0.20076687725222842,
        0.10080087643731592,
        0.060714351226043156,
        0.031578839849580626,
        0.010324210430019609,
        -0.008307864898172194,
        -0.008352643863897873,
        -0.02663708492884105,
        -0.020878056706470527,
        -0.03216003718616883,
        -0.0393654354959673,
        -0.04275580046640431,
        -0.04701270273497486,
        -0.04672437921203766,
        -0.053830468991816025,
        -0.06834664875744835,
        -0.06769232842984525,
        -0.07286823372067494,
        -0.08628460561081025,
        -0.07993967636400681,
        -0.10432353572012316,
        -0.10430198624020531,
        -0.10616854049806905,
        -0.11576821920993803,
        -0.09909470841912783,
        -0.11389423402628504,
        -0.10997179140978033,
        -0.11945161693974544,
        -0.09912950178222164,
        -0.11759489059789693,
        -0.11129800350573,
        -0.10132557121690695,
        -0.10401373792198282,
        -0.11227800356970438,
        -0.11967800016092477,
        -0.11238734772501562,
        -0.10821673100113313,
        -0.10415588947252437,
        -0.11355329520208111,
        -0.1048112094423654,
        -0.12125031016780363,
        -0.1345463478560948,
        -0.13262740015514085,
        -0.15342674065865455,
        -0.1634121880154007,
        -0.16872477087546026,
        -0.17666036874386642,
        -0.1848937831725692,
        -0.204191434609604,
        -0.2047496214589038
      ],
      "val_loss": [
        0.44228647396770376,
        0.33757893701966324,
        0.24095894022190825,
        0.1392172296593276,
        0.05715976411917332,
        0.006106894186351714,
        0.03523735922478018,
        0.0074638983782599954,
        -0.012924824787469322,
        -0.022110987007990947,
        -0.006162729907841498,
        -0.03351970106848191,
        -0.04061554835943764,
        0.0020370668404093373,
        -0.0586091539289835,
        -0.048412036298959515,
        -0.08052031978946156,
        -0.10763277380875264,
        -0.1091883039892242,
        -0.14027024127067403,
        -0.029355440748498794,
        -0.18399693437750558,
        -0.21573600721299574,
        -0.09745367453602587,
        -0.10651526850961773,
        -0.1735284035435606,
        -0.27458960541497185,
        -0.1616802564102956,
        -0.21662563949413086,
        -0.31543725196351396,
        -0.2616731130435261,
        -0.3051231355631307,
        -0.23300643176101474,
        -0.3242362469994231,
        -0.2625519716694895,
        -0.26224429019550805,
        -0.3207093201829435,
        -0.3600865828379224,
        -0.38004531764864774,
        -0.38487061845495346,
        -0.40393210782276673,
        -0.38009938608869,
        -0.34710802214315745,
        -0.3918574078957339,
        -0.39161089346913136,
        -0.3363610488452362,
        -0.4418463180599284,
        -0.3210933842855938,
        -0.35971141714924415,
        -0.3860302291316294,
        -0.34923500471628355,
        -0.3502022467506991,
        -0.41297105543306084
      ],
      "train_nll": [
        16.433207625661577,
        12.441604610851833,
        9.089866741555078,
        4.191509116547448,
        0.4727602759429387,
        -1.3218964337451118,
        -2.753806619814464,
        -3.9217994196925843,
        -4.994460860746248,
        -5.461767120701926,
        -6.499472204617091,
        -6.759990816116333,
        -7.552006014074598,
        -8.203455916472844,
        -8.72291259765625,
        -9.262755314622607,
        -9.647841202020645,
        -10.25808773125921,
        -11.093766653197152,
        -11.436155076367514,
        -11.956757111208779,
        -12.731943416254861,
        -12.868348721095494,
        -13.978174092088427,
        -14.299146093300411,
        -14.671043866702489,
        -15.280691004480634,
        -15.044695775849478,
        -15.805511186463493,
        -15.958743836198535,
        -16.538506513323103,
        -16.16917148726327,
        -17.052888584136962,
        -17.12793442453657,
        -17.073525666509354,
        -17.409253891536167,
        -17.91237523010799,
        -18.3767825113024,
        -18.36462254047394,
        -18.445728575842722,
        -18.52186093057905,
        -19.024181675229755,
        -18.94547833749226,
        -19.314843771117076,
        -19.581121636799402,
        -19.36867099217006,
        -19.88976131779807,
        -20.067930846214296,
        -20.106078825678143,
        -20.232542203494482,
        -20.3703474181039,
        -20.86342887197222,
        -20.764864843913486
      ],
      "val_nll": [
        0.4269879624005104,
        0.3224304924918355,
        0.2259684308449527,
        0.12437168832714478,
        0.04245893397229783,
        -0.008435886046465705,
        0.02085472955572441,
        -0.006757874900617349,
        -0.02698521691657724,
        -0.03601263407920866,
        -0.01990519972408519,
        -0.04710577235502355,
        -0.05404652295930216,
        -0.01123851900255874,
        -0.07173662149861398,
        -0.061393514115162875,
        -0.09335944613765865,
        -0.12032825818497488,
        -0.12173807074937117,
        -0.152681291028764,
        -0.04162754505238635,
        -0.19613319081866248,
        -0.22774230804252385,
        -0.10932611935726542,
        -0.11825665293706672,
        -0.18514039740246138,
        -0.2860720695333278,
        -0.1730372833519316,
        -0.22785276143213684,
        -0.3265439602848287,
        -0.27265821893761244,
        -0.3160158350709383,
        -0.24380155713746188,
        -0.33492923970514904,
        -0.2731381453321932,
        -0.2727210244189514,
        -0.33107460222494917,
        -0.3703385411574038,
        -0.39018601285053583,
        -0.39489975262046306,
        -0.4138521922544783,
        -0.3899138640402554,
        -0.35682212820041165,
        -0.4014731129060251,
        -0.40112844378837803,
        -0.34578900390930556,
        -0.45118439140845,
        -0.3303453247299481,
        -0.3688833129271697,
        -0.39512313059781756,
        -0.35825067646661596,
        -0.3591424533810574,
        -0.42183975391602785
      ],
      "train_kl": [
        274251.5505357143,
        271692.4467857143,
        268988.5540178571,
        266255.8325,
        263718.5407142857,
        261007.03495535714,
        258165.02933035715,
        255291.33410714284,
        252436.03767857142,
        249572.96258928571,
        246714.64495535713,
        243943.61709821428,
        241138.7572767857,
        238376.31080357142,
        235654.96611607142,
        233055.40714285715,
        230488.32647321429,
        227916.3977232143,
        225334.58361607144,
        222793.63638392856,
        220314.25620535715,
        217875.72705357143,
        215482.12785714286,
        213139.03151785713,
        210794.43758928572,
        208457.57875,
        206132.03879464287,
        203852.48575892858,
        201600.78839285715,
        199339.42160714287,
        197204.27308035715,
        195235.3025892857,
        193603.3705357143,
        191809.44169642858,
        189951.5149107143,
        188010.12799107144,
        186036.08839285714,
        184025.3004017857,
        182023.5003125,
        180045.82142857142,
        178065.28116071428,
        176140.17638392857,
        174282.1384375,
        172546.3375,
        170779.69044642858,
        169090.50830357143,
        167494.87120535714,
        165924.46870535714,
        164456.13607142857,
        163039.06973214285,
        161642.50950892858,
        160269.47535714286,
        158969.2629464286
      ],
      "kl_weight_schedule": [
        0.023255813953488372,
        0.046511627906976744,
        0.06976744186046512,
        0.09302325581395349,
        0.11627906976744186,
        0.13953488372093023,
        0.16279069767441862,
        0.18604651162790697,
        0.20930232558139536,
        0.23255813953488372,
        0.2558139534883721,
        0.27906976744186046,
        0.3023255813953488,
        0.32558139534883723,
        0.3488372093023256,
        0.37209302325581395,
        0.3953488372093023,
        0.4186046511627907,
        0.4418604651162791,
        0.46511627906976744,
        0.4883720930232558,
        0.5116279069767442,
        0.5348837209302325,
        0.5581395348837209,
        0.5813953488372093,
        0.6046511627906976,
        0.627906976744186,
        0.6511627906976745,
        0.6744186046511628,
        0.6976744186046512,
        0.7209302325581395,
        0.7441860465116279,
        0.7674418604651163,
        0.7906976744186046,
        0.813953488372093,
        0.8372093023255814,
        0.8604651162790697,
        0.8837209302325582,
        0.9069767441860465,
        0.9302325581395349,
        0.9534883720930233,
        0.9767441860465116,
        1.0,
        1.0,
        1.0,
        1.0,
        1.0,
        1.0,
        1.0,
        1.0,
        1.0,
        1.0,
        1.0
      ],
      "best_epoch": 46
    },
    {
      "train_loss": [
        0.5288809392984051,
        0.4265010494230641,
        0.32814416295731746,
        0.20301690470391262,
        0.09294978385965243,
        0.04713516351871921,
        0.022737941891755247,
        0.00952592855962937,
        -0.007130179702275294,
        -0.020789705785081415,
        -0.01955195861267352,
        -0.031030268255971983,
        -0.05092697857615344,
        -0.05016779024627445,
        -0.05144723130518759,
        -0.05951584623229576,
        -0.05841179052817962,
        -0.06541297566365735,
        -0.0701548555526433,
        -0.07795506286825965,
        -0.08621556179266526,
        -0.0899198430010464,
        -0.10297321244631452,
        -0.10084336170192436,
        -0.1069251677062065,
        -0.11681405378847706,
        -0.11753222360177318,
        -0.11616981776435871,
        -0.1181176902144091,
        -0.12182124609423077,
        -0.11090734284111048,
        -0.1210714004563039,
        -0.11092163545019175,
        -0.11108808755618545,
        -0.13004067530565436,
        -0.11563525381713113,
        -0.11746430179358297,
        -0.12281687089801901,
        -0.11572043109529129,
        -0.11209346686389512,
        -0.11630006929985563,
        -0.11904190242226474,
        -0.11147205700722383,
        -0.12430226149799745,
        -0.13633545969619232,
        -0.14538520551094905,
        -0.1612901778960373,
        -0.16051647618727746,
        -0.1663025175846481,
        -0.18267310788202062,
        -0.18371435838747827,
        -0.19167785374784488,
        -0.2123798744421555
      ],
      "val_loss": [
        0.49283564141456115,
        0.40383864153311755,
        0.33960924972133133,
        0.21971961679088606,
        0.15918359481945205,
        0.15710527708891486,
        0.15967310975878052,
        0.15747597208607927,
        0.14212916950708038,
        0.17224840729943802,
        0.10953160263271594,
        0.15452185524569287,
        0.14287014270157034,
        0.22325611854524577,
        0.06464274171296885,
        0.16310243105261735,
        0.13976581105601057,
        0.13087577270775175,
        0.20935270765397665,
        0.1528203097690778,
        0.16867585307516353,
        0.19179934381095876,
        0.13260364436983912,
        0.19918295057007906,
        0.22387306012856648,
        0.2690748785255251,
        0.17502557804647167,
        0.07729237476487333,
        0.0833899332077542,
        0.17234351261983974,
        0.10574899913372474,
        0.10650175629330517,
        0.2252208525904726,
        0.2794844530699996,
        0.2701545844239198,
        0.020268624297370003,
        0.05791019659316883,
        0.1622738786871651,
        0.21902880471698633,
        0.25706050667506136,
        0.11809453665837179,
        0.1522652178443269,
        0.20770437159436814,
        0.10597342036394064,
        0.24356895823950164,
        0.2643575532266285,
        0.09605357727509117,
        0.21733558556911195,
        0.14362209842858537,
        0.2330216580845686,
        0.16703273501056007,
        0.03871795907336869,
        0.11252995134145954
      ],
      "train_nll": [
        16.311045658929007,
        12.482825204985483,
        8.794853702698434,
        4.2637944723878585,
        0.22361546771866936,
        -1.753157811505454,
        -3.033717184109347,
        -3.9442607350008827,
        -4.952483388526099,
        -5.852572141885758,
        -6.265926003030368,
        -7.0735639597688404,
        -8.138852589130401,
        -8.534598925454276,
        -8.984951018776213,
        -9.641440675258636,
        -9.997655903271266,
        -10.60761278629303,
        -11.135073160443987,
        -11.751941727910722,
        -12.373213950565884,
        -12.83753123317446,
        -13.590560394695826,
        -13.849560415404184,
        -14.361380758115223,
        -14.986647461482457,
        -15.311109503337315,
        -15.559102638448987,
        -15.901497370174953,
        -16.292814908368246,
        -16.2100621679851,
        -16.812321489879064,
        -16.786013258525305,
        -17.07254895891462,
        -17.944546872547694,
        -17.738638125147137,
        -18.037670300347465,
        -18.436838926587786,
        -18.432189093317305,
        -18.540989278725217,
        -18.89409173965454,
        -19.202943628856115,
        -19.173892221450807,
        -19.425002651214598,
        -19.65042757987976,
        -19.784576075417654,
        -20.141635474477496,
        -19.97156603336334,
        -20.01516507216862,
        -20.40694548879351,
        -20.30983055114746,
        -20.444173305375234,
        -20.984986304215024
      ],
      "val_nll": [
        0.47753617497946654,
        0.38869237410410473,
        0.32462071883066723,
        0.20487938547910228,
        0.14449228566042024,
        0.14257285460661887,
        0.145301192454313,
        0.14326510662131375,
        0.12808311925513277,
        0.15836505961507671,
        0.09581046886229247,
        0.1409598148809058,
        0.12946580927422707,
        0.21000643313602452,
        0.051545372773171665,
        0.15015709880594916,
        0.1269600381242468,
        0.11820588690766107,
        0.19682058207830588,
        0.14042344648339722,
        0.1564159235757343,
        0.17967491722823084,
        0.12061833201421515,
        0.18733042596427907,
        0.2121540678308365,
        0.2574889329855373,
        0.16357000491795165,
        0.06596779686040961,
        0.07219943069247937,
        0.161281144544389,
        0.09481372660182145,
        0.09565615648023774,
        0.2144664067350729,
        0.26882781409501133,
        0.25960244308872726,
        0.009821067494952186,
        0.04757516476627584,
        0.15205017180556202,
        0.20891110058570833,
        0.24704589986980185,
        0.10817714041851936,
        0.14244411119979075,
        0.19798123153189992,
        0.09635018072975741,
        0.2340447603686432,
        0.25492769797543563,
        0.08671719905581134,
        0.2080887184572757,
        0.13445929764806105,
        0.22394224937925947,
        0.15803036719597924,
        0.02979051329764317,
        0.10367613065526243
      ],
      "train_kl": [
        274226.33375,
        271685.13785714284,
        268942.9726785714,
        266200.04955357144,
        263578.0689285714,
        260831.9875892857,
        258007.80883928572,
        255109.99464285714,
        252201.93598214287,
        249275.79098214285,
        246391.95169642856,
        243523.85294642858,
        240688.13892857142,
        237907.30232142858,
        235162.01424107142,
        232442.4524107143,
        229831.38651785714,
        227377.5919642857,
        224919.63580357144,
        222510.20625,
        220094.87816964285,
        217647.56151785713,
        215210.2071875,
        212788.2117857143,
        210381.3495982143,
        208010.41901785714,
        205671.41816964286,
        203326.9559375,
        200957.6128125,
        198632.22223214287,
        196340.93816964285,
        194376.06361607142,
        192819.23308035714,
        191121.5578125,
        189326.1089732143,
        187455.34339285715,
        185513.47504464287,
        183517.89736607144,
        181545.25424107144,
        179703.723125,
        177884.7061607143,
        176180.95973214286,
        174458.651875,
        172688.6754017857,
        170915.96084821428,
        169187.43598214287,
        167504.62741071428,
        165880.52138392857,
        164304.24830357142,
        162843.29875,
        161387.01004464287,
        160048.02339285714,
        158707.43357142858
      ],
      "kl_weight_schedule": [
        0.023255813953488372,
        0.046511627906976744,
        0.06976744186046512,
        0.09302325581395349,
        0.11627906976744186,
        0.13953488372093023,
        0.16279069767441862,
        0.18604651162790697,
        0.20930232558139536,
        0.23255813953488372,
        0.2558139534883721,
        0.27906976744186046,
        0.3023255813953488,
        0.32558139534883723,
        0.3488372093023256,
        0.37209302325581395,
        0.3953488372093023,
        0.4186046511627907,
        0.4418604651162791,
        0.46511627906976744,
        0.4883720930232558,
        0.5116279069767442,
        0.5348837209302325,
        0.5581395348837209,
        0.5813953488372093,
        0.6046511627906976,
        0.627906976744186,
        0.6511627906976745,
        0.6744186046511628,
        0.6976744186046512,
        0.7209302325581395,
        0.7441860465116279,
        0.7674418604651163,
        0.7906976744186046,
        0.813953488372093,
        0.8372093023255814,
        0.8604651162790697,
        0.8837209302325582,
        0.9069767441860465,
        0.9302325581395349,
        0.9534883720930233,
        0.9767441860465116,
        1.0,
        1.0,
        1.0,
        1.0,
        1.0,
        1.0,
        1.0,
        1.0,
        1.0,
        1.0,
        1.0
      ],
      "best_epoch": 35
    },
    {
      "train_loss": [
        0.46323976840291703,
        0.32430389107870206,
        0.2401720611538206,
        0.16022544574524675,
        0.038894800139325,
        -0.031538845407111306,
        -0.06382606656423637,
        -0.08175040242927414,
        -0.09411649003624917,
        -0.10399301250066076,
        -0.10974897267563002,
        -0.11684951931238174,
        -0.12564995606030738,
        -0.13178330570459365,
        -0.12218586342675346,
        -0.13202512008803233,
        -0.1305664394583021,
        -0.1303167359318052,
        -0.13690697589090892,
        -0.13575379226888928,
        -0.14116871731621877,
        -0.14772438040801458,
        -0.1464715523804937,
        -0.14644650821174893,
        -0.1503252576504435,
        -0.15700507112911768,
        -0.14889740364892143,
        -0.1589375756893839,
        -0.175900499522686,
        -0.17196937807968685,
        -0.16761597062860217,
        -0.17156985065766744,
        -0.1644614578144891,
        -0.16601727434567043,
        -0.16192045603479657,
        -0.1696515713419233,
        -0.16834358245134354,
        -0.1726085074884551,
        -0.16504322332995278,
        -0.17976637388978686,
        -0.1755880901643208,
        -0.1708883825795991,
        -0.1698829929317747,
        -0.18658044853380748,
        -0.19231218244348253,
        -0.20475674041679928,
        -0.2151601231098175,
        -0.21677080350262778,
        -0.23510778635740281,
        -0.23533829557044164,
        -0.23833231815270015,
        -0.2529233185734068,
        -0.2539866567509515
      ],
      "val_loss": [
        0.9025552537706163,
        0.9859981035945391,
        1.193522790465692,
        0.9732200776687776,
        0.8611278649532433,
        0.7973397226044626,
        0.8625076371009903,
        0.8090631427186908,
        0.7649673731640132,
        0.8366346609712851,
        0.8041713367808949,
        0.790558142613883,
        0.7205693447228634,
        0.7584679574677439,
        0.8022198994954427,
        0.8076174572260693,
        0.8275229868262706,
        0.7674184086346867,
        0.6958685634112117,
        0.8260296407372061,
        0.8215385205817946,
        0.8022890919386738,
        0.7431972966049657,
        0.754082812684955,
        0.7396691755814986,
        0.690809369328046,
        0.6599512273615057,
        0.7915965494483408,
        0.7658824227072976,
        0.7530515921236288,
        0.8475979506367385,
        0.7393977155589094,
        0.6801596015390724,
        0.6681229254212042,
        0.7434228261311849,
        0.7659143736868194,
        0.6929924666279494,
        0.7755778688372987,
        0.7808116180728181,
        0.7362340676664102,
        0.7522101508246528,
        0.7203275853937322,
        0.7434520991161616,
        0.7610242939958669,
        0.7781412298029119,
        0.6999026365954466,
        0.7447775291674065,
        0.753339948557844,
        0.680407055941495,
        0.7314861259075126,
        0.7102132392652107,
        0.7414869674528488,
        0.7380593116837318
      ],
      "train_nll": [
        14.254101057052612,
        9.248557574067798,
        6.00931425009455,
        2.917395294904709,
        -1.4878790153775896,
        -4.255458790745054,
        -5.789594908867564,
        -6.851134515489851,
        -7.722465990270887,
        -8.502367044346673,
        -9.139086342198508,
        -9.80614882673536,
        -10.516870387622289,
        -11.13274754353932,
        -11.235472231251853,
        -11.948618058817727,
        -12.290286591734205,
        -12.66184667978968,
        -13.241182406970433,
        -13.563657226221903,
        -14.088085233824593,
        -14.639330604416983,
        -14.931072707176208,
        -15.257205603803907,
        -15.697159302575248,
        -16.21571832180023,
        -16.252393835612704,
        -16.861386310032437,
        -17.6799578332901,
        -17.822398688452584,
        -17.949018787656513,
        -18.329783682141986,
        -18.351237256867545,
        -18.64124212060656,
        -18.7435098028183,
        -19.218794463021414,
        -19.397475704465595,
        -19.743123069490704,
        -19.709263642856055,
        -20.386596262795585,
        -20.45089477130345,
        -20.49890797478812,
        -20.655884843553814,
        -21.029784718922205,
        -21.05962021963937,
        -21.308139243807112,
        -21.495482405935014,
        -21.411209340776715,
        -21.866674774714877,
        -21.749061994552612,
        -21.724970974240986,
        -22.078248710632323,
        -22.007079443250383
      ],
      "val_nll": [
        0.8871507355661103,
        0.9707443237304687,
        1.178436841868391,
        0.9583053820060962,
        0.8463644470831361,
        0.7827265806872435,
        0.8480564849545257,
        0.7947708129882812,
        0.7508388133964153,
        0.822667008216935,
        0.7903654464567551,
        0.7769125466394906,
        0.7070821280431265,
        0.7451340877648556,
        0.7890405404447305,
        0.7945872297190657,
        0.8146434128886522,
        0.7546844174163511,
        0.6832829138245246,
        0.813586487432923,
        0.8092356980449021,
        0.7901282917369495,
        0.7311739950469046,
        0.7421926710340712,
        0.7279154421103121,
        0.6791918051363242,
        0.6484671159224077,
        0.780248021597814,
        0.7546699023005938,
        0.7419670798561789,
        0.8366417586201369,
        0.7285690692940143,
        0.669456023399276,
        0.6575442150385693,
        0.7329626141172467,
        0.7555757695978338,
        0.6827735477023654,
        0.7654796292083432,
        0.7708235037447226,
        0.7263577856198706,
        0.7424434353606869,
        0.7106666988796658,
        0.7338947026416509,
        0.751566083503492,
        0.7687787296796086,
        0.6906345405963936,
        0.7355972020312993,
        0.7442449434839113,
        0.6713919629954328,
        0.7225489452631787,
        0.7013488037417633,
        0.7326918207033716,
        0.7293292768073805
      ],
      "train_kl": [
        274305.67375,
        271903.4080357143,
        269084.6369642857,
        266062.2150892857,
        263195.6274553572,
        260562.90776785713,
        257804.65535714285,
        254954.33308035714,
        252076.83959821428,
        249208.29607142857,
        246365.5108482143,
        243487.489375,
        240654.47611607143,
        237899.44638392856,
        235198.16535714286,
        232486.81830357143,
        229812.73910714284,
        227200.4465625,
        224581.71276785716,
        222006.4325,
        219487.7434375,
        216985.98370535715,
        214500.0934375,
        212123.06754464286,
        209722.37714285715,
        207302.05486607144,
        204906.11745535713,
        202536.59879464286,
        200132.07089285715,
        197767.08174107142,
        195518.85625,
        193235.21267857144,
        191012.35205357143,
        188796.96714285715,
        186613.88022321428,
        184478.80785714285,
        182363.4474107143,
        180215.35901785715,
        178165.82022321428,
        176194.23763392857,
        174222.63308035713,
        172349.5046875,
        170459.84772321428,
        168663.15808035716,
        166943.06241071428,
        165266.3453125,
        163636.01665178573,
        162114.89053571428,
        160644.12857142856,
        159244.2509375,
        157901.37357142856,
        156628.66986607143,
        155450.47348214284
      ],
      "kl_weight_schedule": [
        0.023255813953488372,
        0.046511627906976744,
        0.06976744186046512,
        0.09302325581395349,
        0.11627906976744186,
        0.13953488372093023,
        0.16279069767441862,
        0.18604651162790697,
        0.20930232558139536,
        0.23255813953488372,
        0.2558139534883721,
        0.27906976744186046,
        0.3023255813953488,
        0.32558139534883723,
        0.3488372093023256,
        0.37209302325581395,
        0.3953488372093023,
        0.4186046511627907,
        0.4418604651162791,
        0.46511627906976744,
        0.4883720930232558,
        0.5116279069767442,
        0.5348837209302325,
        0.5581395348837209,
        0.5813953488372093,
        0.6046511627906976,
        0.627906976744186,
        0.6511627906976745,
        0.6744186046511628,
        0.6976744186046512,
        0.7209302325581395,
        0.7441860465116279,
        0.7674418604651163,
        0.7906976744186046,
        0.813953488372093,
        0.8372093023255814,
        0.8604651162790697,
        0.8837209302325582,
        0.9069767441860465,
        0.9302325581395349,
        0.9534883720930233,
        0.9767441860465116,
        1.0,
        1.0,
        1.0,
        1.0,
        1.0,
        1.0,
        1.0,
        1.0,
        1.0,
        1.0,
        1.0
      ],
      "best_epoch": 26
    },
    {
      "train_loss": [
        0.5628960199395346,
        0.4545120858736376,
        0.31717321714149593,
        0.1382039237995537,
        0.05692199731530402,
        0.012069310546134733,
        -0.011155395334098999,
        -0.0331720304967168,
        -0.04513194855079829,
        -0.054053380717268305,
        -0.06919068819384741,
        -0.0837449827930042,
        -0.08518998566554774,
        -0.08673325391213527,
        -0.10509359113127793,
        -0.10357056959871319,
        -0.11019430120401898,
        -0.1244197278478604,
        -0.11614713982958713,
        -0.11799766395922591,
        -0.13103634069950146,
        -0.12798059609812987,
        -0.13299817437985614,
        -0.12995992904489628,
        -0.15401567633417487,
        -0.14167141047934242,
        -0.13590651116745045,
        -0.1460615119497024,
        -0.1401953872625349,
        -0.1523155029896464,
        -0.15313288613198864,
        -0.1485897831877542,
        -0.13979783277549157,
        -0.14677814582834267,
        -0.14433275616130561,
        -0.14803936205753665,
        -0.14262519342003865,
        -0.1465251896913189,
        -0.14339749547601216,
        -0.14528433362344154,
        -0.14372532354048234,
        -0.14587670963723046,
        -0.1424139420959713,
        -0.15349487032550577,
        -0.15815461130070507,
        -0.16578334589137683,
        -0.17947127611629432,
        -0.18292370988099413,
        -0.19121400242077163,
        -0.2001431388236953,
        -0.20878225528677433,
        -0.21018334097474697,
        -0.2202062556020598
      ],
      "val_loss": [
        0.3960171810527319,
        0.295297023501056,
        0.198051034404578,
        0.28428089394885697,
        0.26856632161050925,
        0.3634261550234913,
        0.3303347228316401,
        0.504896092802771,
        0.5280752170070987,
        0.7366190350548049,
        0.6518590170391212,
        0.7201533197013845,
        0.7276584553629049,
        0.8226655083991709,
        0.9520741029436209,
        0.9821594085502385,
        1.1438458152646864,
        1.2752963986355015,
        1.0673288357272763,
        1.2099247976596723,
        1.2336221057571966,
        1.2601956822248515,
        1.3636489428924827,
        1.4527717829049007,
        1.419093431608847,
        1.4854828148222388,
        1.3903798128397802,
        1.5977296296884778,
        1.657786053978606,
        1.8086289349724265,
        1.5929797653561093,
        1.50572219485783,
        1.7072695850281603,
        1.6150978823627191,
        1.5322563085448608,
        1.5064543340919314,
        1.6381138043648311,
        1.6548845083453927,
        1.573620972138024,
        1.8506388142649015,
        1.6594320934615534,
        1.8726632778277534,
        1.7801016835008605,
        1.907427069481383,
        1.7018412755935153,
        1.81748853547403,
        1.6374325175756805,
        1.7846334865603488,
        1.8431837556955961,
        1.855373202098326,
        1.7735950455647684,
        1.8482158637016974,
        1.8073331715914425
      ],
      "train_nll": [
        17.396852316856386,
        13.377356464862823,
        8.444811732087816,
        2.1932099813222887,
        -0.9300287347180503,
        -2.8772520508084978,
        -4.122336660964148,
        -5.315964261293411,
        -6.176750961031233,
        -6.929838106632233,
        -7.870080057041986,
        -8.779284000567028,
        -9.259793838943754,
        -9.73484172480447,
        -10.735253465516227,
        -11.091503022909164,
        -11.697022569179534,
        -12.53408772127969,
        -12.646243854590825,
        -13.06886664867401,
        -13.839661443574087,
        -14.088826409067426,
        -14.58528198514666,
        -14.816240815435137,
        -15.89953562600272,
        -15.811118756021772,
        -15.926704701696123,
        -16.538501568521774,
        -16.631451298849925,
        -17.29304508686066,
        -17.58277850696019,
        -17.69392114026206,
        -17.664583405767168,
        -18.134923812661853,
        -18.29122387068612,
        -18.63725164617811,
        -18.68818274293627,
        -19.02913190432957,
        -19.13904599428177,
        -19.40588277339935,
        -19.553597337177823,
        -19.81605537755149,
        -19.89882439136505,
        -20.090149220057896,
        -20.083887669358933,
        -20.184657490594045,
        -20.483489909853255,
        -20.466328585488455,
        -20.60846284321376,
        -20.775272017887662,
        -20.93751854828426,
        -20.884501715387618,
        -21.11618717125484
      ],
      "val_nll": [
        0.38072229798356344,
        0.28015543492475947,
        0.18305598081128022,
        0.26942460080410574,
        0.25385426699145414,
        0.34886856938482674,
        0.315934064003344,
        0.4906549293794978,
        0.5139911446314729,
        0.722691179067829,
        0.6380879121668198,
        0.7065373541267405,
        0.7141941304499276,
        0.8093486876601123,
        0.938906245416634,
        0.9691367673336788,
        1.1309719042724304,
        1.2625661456092576,
        1.0547410795476768,
        1.1974796911055812,
        1.2213159286632704,
        1.2480288318161374,
        1.3516200365202597,
        1.4408781011053857,
        1.4073419716540208,
        1.4738653648481501,
        1.3788980228581627,
        1.5863833545594102,
        1.646569793662977,
        1.7975449811531994,
        1.5820258263503206,
        1.4948949095304678,
        1.6965640644555695,
        1.6045142793237641,
        1.5217961508281836,
        1.4961167126632902,
        1.6278910650031289,
        1.6447800198245854,
        1.563629845534457,
        1.840761202357439,
        1.6496641767785905,
        1.8630032230229192,
        1.77054567110255,
        1.8979709744602629,
        1.692478070121832,
        1.8082125667338078,
        1.6282387438644008,
        1.7755186995218633,
        1.8341439830794353,
        1.8464073744524405,
        1.764693996157306,
        1.8393725647049046,
        1.798545942437813
      ],
      "train_kl": [
        274204.5817857143,
        271584.51285714284,
        268918.8525,
        266410.71973214287,
        263927.53348214284,
        261215.68129464285,
        258470.64642857143,
        255637.50995535715,
        252802.49080357142,
        250019.8978125,
        247251.6775892857,
        244447.26799107142,
        241695.7155357143,
        239042.17607142858,
        236376.15544642857,
        233758.60482142857,
        231144.53263392858,
        228524.6555357143,
        226009.30013392857,
        223441.3365625,
        220913.11214285714,
        218442.309375,
        215968.91553571427,
        213534.41799107142,
        211054.40008928571,
        208583.65066964287,
        206188.96401785716,
        203760.27325892856,
        201375.6205357143,
        199062.2325892857,
        196726.4479910714,
        194424.29638392857,
        192190.96120535713,
        190035.69553571427,
        187822.79553571428,
        185644.17482142858,
        183531.86473214286,
        181438.58441964287,
        179369.98428571428,
        177367.0891517857,
        175354.9110267857,
        173396.31816964285,
        171523.40138392858,
        169709.30955357142,
        167977.6438392857,
        166382.95959821428,
        164840.25897321428,
        163417.35982142857,
        162048.88026785714,
        160728.25120535714,
        159460.07147321428,
        158368.12607142856,
        157382.24232142858
      ],
      "kl_weight_schedule": [
        0.023255813953488372,
        0.046511627906976744,
        0.06976744186046512,
        0.09302325581395349,
        0.11627906976744186,
        0.13953488372093023,
        0.16279069767441862,
        0.18604651162790697,
        0.20930232558139536,
        0.23255813953488372,
        0.2558139534883721,
        0.27906976744186046,
        0.3023255813953488,
        0.32558139534883723,
        0.3488372093023256,
        0.37209302325581395,
        0.3953488372093023,
        0.4186046511627907,
        0.4418604651162791,
        0.46511627906976744,
        0.4883720930232558,
        0.5116279069767442,
        0.5348837209302325,
        0.5581395348837209,
        0.5813953488372093,
        0.6046511627906976,
        0.627906976744186,
        0.6511627906976745,
        0.6744186046511628,
        0.6976744186046512,
        0.7209302325581395,
        0.7441860465116279,
        0.7674418604651163,
        0.7906976744186046,
        0.813953488372093,
        0.8372093023255814,
        0.8604651162790697,
        0.8837209302325582,
        0.9069767441860465,
        0.9302325581395349,
        0.9534883720930233,
        0.9767441860465116,
        1.0,
        1.0,
        1.0,
        1.0,
        1.0,
        1.0,
        1.0,
        1.0,
        1.0,
        1.0,
        1.0
      ],
      "best_epoch": 2
    },
    {
      "train_loss": [
        0.5600894703858222,
        0.45014800663238524,
        0.36811295750317846,
        0.2464737902074316,
        0.1381645079714143,
        0.07918550534526635,
        0.0553632982520702,
        0.04192199350214329,
        0.022961933425878735,
        0.019045073180227693,
        0.00254389909361154,
        -0.005451490535046352,
        -0.006228569306825337,
        -0.007921627418908688,
        -0.01374548554121701,
        -0.019732221667586456,
        -0.03185651898170687,
        -0.03726098540005955,
        -0.04071800964005822,
        -0.042310482193140674,
        -0.04993038210781765,
        -0.06260915746664941,
        -0.06181039525922208,
        -0.0641471343018272,
        -0.07302704887752075,
        -0.07336745811029442,
        -0.0803775836437183,
        -0.07527488783786171,
        -0.0827334125623283,
        -0.07404249255647806,
        -0.09226488341492989,
        -0.09205654091703563,
        -0.09047691846807243,
        -0.097436773362998,
        -0.09877416296240851,
        -0.08967612261760205,
        -0.09142299744974444,
        -0.09449633282655634,
        -0.08713529236291925,
        -0.08809634079610494,
        -0.09625073764813318,
        -0.09678453746936333,
        -0.08412603144572278,
        -0.1104091695675575,
        -0.10814600711307601,
        -0.12939303022877016,
        -0.13085748369959235,
        -0.1524905939918242,
        -0.15604963539067537,
        -0.16292024674570948,
        -0.163135074220419,
        -0.17112806540768163,
        -0.175129931373405
      ],
      "val_loss": [
        0.40263142496235527,
        0.31118359619446184,
        0.23906260503546914,
        0.09646881924702021,
        0.03028412426219267,
        -0.01621653338397698,
        -0.025622853468893765,
        -0.05994171421876986,
        -0.06537414772788037,
        -0.08457338335517052,
        -0.10274451712941347,
        -0.1014730336519893,
        -0.15093647714550415,
        -0.1503276533716462,
        -0.15901493077284104,
        -0.1745865307403297,
        -0.16487231200866317,
        -0.1886349435741821,
        -0.21331063224019037,
        -0.22133621196722955,
        -0.22427684989232147,
        -0.22984126142327568,
        -0.24179571483549994,
        -0.27832592521352373,
        -0.2600465967896883,
        -0.266849281969894,
        -0.27651245346355796,
        -0.25708068733072104,
        -0.3000869941950143,
        -0.2785521888016759,
        -0.2967434001058452,
        -0.27460658869546406,
        -0.31053783813018226,
        -0.3572465860798899,
        -0.3202886283024679,
        -0.34241305698590524,
        -0.3743060612111575,
        -0.3569127470739792,
        -0.354223894446305,
        -0.32281795687908227,
        -0.30017607382152495,
        -0.31729809327776054,
        -0.3953481624063771,
        -0.3145585042215856,
        -0.31361455141528227,
        -0.32222338355378305,
        -0.36307982252596016,
        -0.31433135738062473,
        -0.36411352623090876,
        -0.32584113931476844,
        -0.35841224870932414,
        -0.3933406156652114,
        -0.34917464274190396
      ],
      "train_nll": [
        17.307296141215733,
        13.237857186113086,
        10.071299405949457,
        5.652547259841646,
        1.668980553490775,
        -0.7282720662014825,
        -1.98994259255273,
        -2.908235913515091,
        -3.98979661158153,
        -4.579005245992116,
        -5.557525162015643,
        -6.254105803455626,
        -6.707379881654467,
        -7.179932218960353,
        -7.774652339730944,
        -8.364342467103686,
        -9.140976741143636,
        -9.696253891331809,
        -10.177493630647659,
        -10.589632582664489,
        -11.18478113753455,
        -11.931276069709233,
        -12.241086351871491,
        -12.642573768070767,
        -13.240797701052257,
        -13.559202367237637,
        -14.080905665329524,
        -14.20590820653098,
        -14.723151647703988,
        -14.719103451456343,
        -15.565217097827366,
        -15.815043406486511,
        -16.013409314836775,
        -16.475974918774195,
        -16.764043077060155,
        -16.730495745795114,
        -17.029683115822927,
        -17.35877612420491,
        -17.35890903404781,
        -17.61122688974653,
        -18.083829983983723,
        -18.31110715832029,
        -18.113146725382123,
        -18.79769096306392,
        -18.572063522338865,
        -19.09959563936506,
        -18.997846253940036,
        -19.54636147090367,
        -19.520128508976526,
        -19.612629769529615,
        -19.513877936771937,
        -19.66017957551139,
        -19.6827601316997
      ],
      "val_nll": [
        0.3873365036984707,
        0.29603825880678486,
        0.22408114780621774,
        0.08164242301625811,
        0.015603362156243736,
        -0.03074208344327046,
        -0.03998632132634054,
        -0.07414695921170995,
        -0.07941422659404884,
        -0.09845171010538992,
        -0.11645856959948105,
        -0.11502703259674568,
        -0.16432998332571477,
        -0.16356479611355015,
        -0.17209835887999647,
        -0.1875197180221615,
        -0.17766167995180743,
        -0.20128048835916723,
        -0.22581296498247322,
        -0.23369791271987933,
        -0.2364965608331826,
        -0.24192190683529582,
        -0.25374275369847077,
        -0.2901380994889853,
        -0.27172125099000705,
        -0.2783931574624531,
        -0.2879218262635423,
        -0.26835826735323454,
        -0.3112329494968075,
        -0.289571326187764,
        -0.30763559353366515,
        -0.28537218955640353,
        -0.32117747281758446,
        -0.3677646068816489,
        -0.33070430063336004,
        -0.3527283841587874,
        -0.38451497217591324,
        -0.3670205585350829,
        -0.36423197377459127,
        -0.33272276342437324,
        -0.30997893866967496,
        -0.32700172156953394,
        -0.4049537515461221,
        -0.32406665673094787,
        -0.3230291593358275,
        -0.33154330295376544,
        -0.3723097284386245,
        -0.3234724701271487,
        -0.3731703718851445,
        -0.3348273629390253,
        -0.367331440606911,
        -0.4021913607218985,
        -0.3579653915386176
      ],
      "train_kl": [
        274190.6995535714,
        271632.0444642857,
        268840.20214285713,
        266006.81,
        263375.2369642857,
        260684.7578125,
        257844.93910714285,
        254993.35285714286,
        252087.36107142858,
        249177.75254464286,
        246256.51950892858,
        243404.41133928573,
        240514.475625,
        237695.61214285714,
        234942.34665178572,
        232226.12638392858,
        229576.07316964286,
        227037.38330357143,
        224465.6521875,
        221920.9009375,
        219403.7963392857,
        216894.25495535714,
        214467.53776785714,
        212074.76205357144,
        209640.4803125,
        207259.71227678572,
        204884.49910714285,
        202506.36616071427,
        200147.90361607142,
        197853.7622767857,
        195569.55,
        193308.32705357144,
        191072.21357142858,
        188849.22651785714,
        186821.50647321428,
        185059.67598214286,
        183218.62683035716,
        181317.28897321428,
        179564.02209821428,
        177736.81191964285,
        175889.4563392857,
        174106.31928571427,
        172359.8759375,
        170634.76794642856,
        168921.12508928572,
        167237.80799107143,
        165578.82486607143,
        163992.24785714285,
        162429.98254464284,
        161013.27607142858,
        159833.4108482143,
        158617.51017857142,
        157442.67379464285
      ],
      "kl_weight_schedule": [
        0.023255813953488372,
        0.046511627906976744,
        0.06976744186046512,
        0.09302325581395349,
        0.11627906976744186,
        0.13953488372093023,
        0.16279069767441862,
        0.18604651162790697,
        0.20930232558139536,
        0.23255813953488372,
        0.2558139534883721,
        0.27906976744186046,
        0.3023255813953488,
        0.32558139534883723,
        0.3488372093023256,
        0.37209302325581395,
        0.3953488372093023,
        0.4186046511627907,
        0.4418604651162791,
        0.46511627906976744,
        0.4883720930232558,
        0.5116279069767442,
        0.5348837209302325,
        0.5581395348837209,
        0.5813953488372093,
        0.6046511627906976,
        0.627906976744186,
        0.6511627906976745,
        0.6744186046511628,
        0.6976744186046512,
        0.7209302325581395,
        0.7441860465116279,
        0.7674418604651163,
        0.7906976744186046,
        0.813953488372093,
        0.8372093023255814,
        0.8604651162790697,
        0.8837209302325582,
        0.9069767441860465,
        0.9302325581395349,
        0.9534883720930233,
        0.9767441860465116,
        1.0,
        1.0,
        1.0,
        1.0,
        1.0,
        1.0,
        1.0,
        1.0,
        1.0,
        1.0,
        1.0
      ],
      "best_epoch": 42
    },
    {
      "train_loss": [
        0.5420912945949173,
        0.4457603223939289,
        0.3552574394020691,
        0.22812489563958688,
        0.13557605179159435,
        0.09529027578611336,
        0.06455922188658123,
        0.0495622793577326,
        0.032563014564828296,
        0.03266082245775162,
        0.025207519211139125,
        0.022209737683298595,
        0.022425028955983382,
        0.016631243991203047,
        0.010553991179973304,
        0.014844274354416369,
        0.009606898151074008,
        0.00640575530663042,
        -0.014762608244390928,
        -0.006719018112917421,
        0.0009617899806961295,
        -0.010715654747399899,
        -0.013473115042465544,
        -0.01628850614388613,
        -0.022943838027656357,
        -0.02329812253029424,
        -0.03162339000005343,
        -0.03432240031160764,
        -0.03655146553744307,
        -0.039223377737911895,
        -0.023240883547560612,
        -0.04680278349895867,
        -0.03541240630677384,
        -0.04653280488999992,
        -0.050864405329834377,
        -0.052947313905914666,
        -0.04904805627980627,
        -0.050962652991076676,
        -0.057851983491041904,
        -0.057244178517249764,
        -0.04823339454939064,
        -0.06732239178590266,
        -0.06089447238647592,
        -0.07234184292965024,
        -0.09012885619524427,
        -0.09688839193658935,
        -0.09444679430296803,
        -0.11925183723701016,
        -0.12667142649171517,
        -0.13495694472718914,
        -0.15316267564994138,
        -0.14931094821447802,
        -0.16634463154198317
      ],
      "val_loss": [
        0.4124815366742608,
        0.3132377595865682,
        0.1924280741933887,
        -0.01793327104761842,
        -0.08158373206070577,
        -0.10150624753835055,
        -0.10450546493816734,
        -0.10974427988293473,
        -0.11353593714096967,
        -0.15316941806759793,
        -0.1476473955099514,
        -0.22300780562495112,
        -0.17970301373879213,
        -0.1945220985460341,
        -0.17706997027534419,
        -0.20443446859997116,
        -0.1904387090919313,
        -0.25030192923038563,
        -0.23732715936118878,
        -0.24604318974462708,
        -0.26006597965321643,
        -0.2943791825123812,
        -0.24969723716993655,
        -0.2823321842580325,
        -0.2637996649712287,
        -0.21128782289049056,
        -0.2655329421405052,
        -0.21265767733653884,
        -0.28438500319613386,
        -0.2698241461800395,
        -0.2885127252571574,
        -0.2546364260256962,
        -0.29879196773333305,
        -0.2312270774411618,
        -0.22971505939736683,
        -0.186440145327839,
        -0.22594235340256863,
        -0.1635207583220939,
        -0.24769578821518842,
        -0.2901972459165265,
        -0.25591901222964253,
        -0.2238075132214829,
        -0.21986694956601635,
        -0.26248584503823136,
        -0.2865207046680665,
        -0.20153610673505762,
        -0.2547893290227286,
        -0.25098150680599285,
        -0.24449944048560457,
        -0.23257093369886186,
        -0.2743818930004058,
        -0.2699191507618776,
        -0.1997206610344229
      ],
      "train_nll": [
        16.732731229918343,
        13.09766161612102,
        9.660714498928614,
        5.065891998239926,
        1.585489988241877,
        -0.21528472534247808,
        -1.6985986217856408,
        -2.666916064960616,
        -3.6861708201680865,
        -4.148989914655686,
        -4.841214885967118,
        -5.380363932507379,
        -5.805585624660765,
        -6.411361412320818,
        -7.017139389004027,
        -7.2803413583551135,
        -7.8383541253634865,
        -8.32500588280814,
        -9.375465429850987,
        -9.48393292427063,
        -9.596126185825893,
        -10.315390382153648,
        -10.741083206449236,
        -11.161450610160827,
        -11.69551241993904,
        -12.018863115310669,
        -12.586560514654431,
        -12.966449778079987,
        -13.323265584877559,
        -13.689228548663003,
        -13.447939026526042,
        -14.464006908280508,
        -14.356749999182565,
        -14.958748379434859,
        -15.335997364180429,
        -15.6320689868927,
        -15.75015257358551,
        -16.081700444562095,
        -16.556130341802323,
        -16.775920687402998,
        -16.716421563284737,
        -17.543813064438957,
        -17.54816021510533,
        -17.757736260550363,
        -18.17758975165231,
        -18.246101641654967,
        -18.029925028937203,
        -18.68572712762015,
        -18.789244486945016,
        -18.92389060633523,
        -19.3795205450058,
        -19.135628775869097,
        -19.564644195011685
      ],
      "val_nll": [
        0.3971846292851416,
        0.2980930982453653,
        0.1774427430650618,
        -0.032766575389570826,
        -0.09626887468283107,
        -0.11603736018060296,
        -0.11887893736437057,
        -0.12395709614282258,
        -0.12758672329899068,
        -0.16705969045397934,
        -0.16138041666959493,
        -0.23658600808383526,
        -0.19312424928285601,
        -0.2077918022833718,
        -0.19018790730845198,
        -0.2174000650532404,
        -0.20326096268559576,
        -0.2629827659330022,
        -0.24986778326118098,
        -0.25844707656115556,
        -0.2723334358988775,
        -0.30651032181645516,
        -0.26169461762353086,
        -0.2941992061457437,
        -0.27553564078816783,
        -0.22289300328948172,
        -0.27700616218270885,
        -0.22400164836936062,
        -0.2956028256756493,
        -0.2809154849476152,
        -0.29948197079540345,
        -0.26548206582385697,
        -0.3095167854700578,
        -0.2418313304533499,
        -0.24019580406599558,
        -0.19680097768542465,
        -0.23622032232368098,
        -0.17371561577979555,
        -0.25779890172621783,
        -0.3002054455581684,
        -0.26583243550287466,
        -0.23362133995313966,
        -0.22958309569854163,
        -0.27210705581684136,
        -0.29604934864259036,
        -0.21097467014279322,
        -0.26414395978065847,
        -0.2602504095237455,
        -0.25368559244129624,
        -0.24167769984697668,
        -0.28341113915282284,
        -0.27887494752046016,
        -0.20860608689328458
      ],
      "train_kl": [
        274221.0363392857,
        271665.8264285714,
        268878.115,
        266121.92982142855,
        263458.53955357143,
        260770.98392857143,
        257995.22950892858,
        255146.965625,
        252238.99089285714,
        249398.705,
        246567.1384375,
        243772.8977232143,
        240988.53897321428,
        238215.70473214285,
        235522.86767857143,
        232817.0330357143,
        230166.3849107143,
        227640.39517857143,
        225134.87370535714,
        222650.61959821428,
        220223.28816964285,
        217779.8197767857,
        215364.0579017857,
        213006.0147767857,
        210666.045625,
        208329.0359375,
        205985.65058035715,
        203668.666875,
        201377.74526785716,
        199159.65888392858,
        196901.7652232143,
        194711.43526785713,
        192542.51517857143,
        190369.93616071428,
        188211.00022321427,
        186046.5802232143,
        184167.44236607142,
        182739.7586607143,
        181189.29455357144,
        179532.23013392856,
        177826.33316964286,
        176086.66732142857,
        174332.45857142858,
        172591.59245535714,
        170939.1645982143,
        169294.05991071428,
        167749.63339285715,
        166230.52205357142,
        164741.1164732143,
        163290.6821875,
        161888.62982142856,
        160537.43584821429,
        159256.0104910714
      ],
      "kl_weight_schedule": [
        0.023255813953488372,
        0.046511627906976744,
        0.06976744186046512,
        0.09302325581395349,
        0.11627906976744186,
        0.13953488372093023,
        0.16279069767441862,
        0.18604651162790697,
        0.20930232558139536,
        0.23255813953488372,
        0.2558139534883721,
        0.27906976744186046,
        0.3023255813953488,
        0.32558139534883723,
        0.3488372093023256,
        0.37209302325581395,
        0.3953488372093023,
        0.4186046511627907,
        0.4418604651162791,
        0.46511627906976744,
        0.4883720930232558,
        0.5116279069767442,
        0.5348837209302325,
        0.5581395348837209,
        0.5813953488372093,
        0.6046511627906976,
        0.627906976744186,
        0.6511627906976745,
        0.6744186046511628,
        0.6976744186046512,
        0.7209302325581395,
        0.7441860465116279,
        0.7674418604651163,
        0.7906976744186046,
        0.813953488372093,
        0.8372093023255814,
        0.8604651162790697,
        0.8837209302325582,
        0.9069767441860465,
        0.9302325581395349,
        0.9534883720930233,
        0.9767441860465116,
        1.0,
        1.0,
        1.0,
        1.0,
        1.0,
        1.0,
        1.0,
        1.0,
        1.0,
        1.0,
        1.0
      ],
      "best_epoch": 32
    }
  ]
}